digraph Tree {
node [shape=box] ;
0 [label="Percent 60 to 64 years <= 6.05\nmse = 0.424\nsamples = 21\nvalue = 1.129"] ;
1 [label="percent_english_not_very_well <= 15.4\nmse = 0.002\nsamples = 2\nvalue = 2.54"] ;
0 -> 1 [labeldistance=2.5, labelangle=45, headlabel="True"] ;
2 [label="mse = 0.0\nsamples = 1\nvalue = 2.58"] ;
1 -> 2 ;
3 [label="mse = -0.0\nsamples = 1\nvalue = 2.5"] ;
1 -> 3 ;
4 [label="Percent_Ballots_Cast_Unaff <= 33.033\nmse = 0.236\nsamples = 19\nvalue = 0.98"] ;
0 -> 4 [labeldistance=2.5, labelangle=-45, headlabel="False"] ;
5 [label="Percent_Ballots_Cast_Other <= 0.955\nmse = 0.169\nsamples = 12\nvalue = 0.76"] ;
4 -> 5 ;
6 [label="Percent_Ballots_Cast_Other <= 0.86\nmse = 0.063\nsamples = 7\nvalue = 0.51"] ;
5 -> 6 ;
7 [label="Percent Asian <= 8.1\nmse = 0.019\nsamples = 5\nvalue = 0.646"] ;
6 -> 7 ;
8 [label="Percent 20 to 24 years <= 5.55\nmse = 0.002\nsamples = 4\nvalue = 0.712"] ;
7 -> 8 ;
9 [label="mse = 0.0\nsamples = 1\nvalue = 0.649"] ;
8 -> 9 ;
10 [label="Percent $75,000 to $99,999 <= 10.7\nmse = 0.0\nsamples = 3\nvalue = 0.733"] ;
8 -> 10 ;
11 [label="mse = 0.0\nsamples = 1\nvalue = 0.71"] ;
10 -> 11 ;
12 [label="Percent $10,000 to $14,999 <= 1.45\nmse = 0.0\nsamples = 2\nvalue = 0.744"] ;
10 -> 12 ;
13 [label="mse = 0.0\nsamples = 1\nvalue = 0.734"] ;
12 -> 13 ;
14 [label="mse = 0.0\nsamples = 1\nvalue = 0.754"] ;
12 -> 14 ;
15 [label="mse = 0.0\nsamples = 1\nvalue = 0.383"] ;
7 -> 15 ;
16 [label="Percent Asian <= 4.4\nmse = 0.013\nsamples = 2\nvalue = 0.172"] ;
6 -> 16 ;
17 [label="mse = 0.0\nsamples = 1\nvalue = 0.058"] ;
16 -> 17 ;
18 [label="mse = 0.0\nsamples = 1\nvalue = 0.285"] ;
16 -> 18 ;
19 [label="Percent 20 to 24 years <= 6.25\nmse = 0.108\nsamples = 5\nvalue = 1.109"] ;
5 -> 19 ;
20 [label="percent_english <= 90.55\nmse = 0.041\nsamples = 3\nvalue = 1.34"] ;
19 -> 20 ;
21 [label="percent_english_very_well <= 94.8\nmse = 0.004\nsamples = 2\nvalue = 1.202"] ;
20 -> 21 ;
22 [label="mse = 0.0\nsamples = 1\nvalue = 1.267"] ;
21 -> 22 ;
23 [label="mse = 0.0\nsamples = 1\nvalue = 1.136"] ;
21 -> 23 ;
24 [label="mse = -0.0\nsamples = 1\nvalue = 1.615"] ;
20 -> 24 ;
25 [label="Percent Asian <= 6.45\nmse = 0.008\nsamples = 2\nvalue = 0.762"] ;
19 -> 25 ;
26 [label="mse = 0.0\nsamples = 1\nvalue = 0.853"] ;
25 -> 26 ;
27 [label="mse = -0.0\nsamples = 1\nvalue = 0.672"] ;
25 -> 27 ;
28 [label="Percent Two or more races <= 2.1\nmse = 0.126\nsamples = 7\nvalue = 1.358"] ;
4 -> 28 ;
29 [label="Percent_Ballots_Cast_Dem <= 44.28\nmse = 0.051\nsamples = 5\nvalue = 1.171"] ;
28 -> 29 ;
30 [label="Percent 20 to 24 years <= 5.6\nmse = 0.014\nsamples = 4\nvalue = 1.271"] ;
29 -> 30 ;
31 [label="mse = 0.0\nsamples = 1\nvalue = 1.1"] ;
30 -> 31 ;
32 [label="Percent_Ballots_Cast_Dem <= 33.836\nmse = 0.006\nsamples = 3\nvalue = 1.327"] ;
30 -> 32 ;
33 [label="mse = 0.0\nsamples = 1\nvalue = 1.433"] ;
32 -> 33 ;
34 [label="percent_english <= 67.95\nmse = 0.0\nsamples = 2\nvalue = 1.275"] ;
32 -> 34 ;
35 [label="mse = 0.0\nsamples = 1\nvalue = 1.256"] ;
34 -> 35 ;
36 [label="mse = -0.0\nsamples = 1\nvalue = 1.294"] ;
34 -> 36 ;
37 [label="mse = 0.0\nsamples = 1\nvalue = 0.773"] ;
29 -> 37 ;
38 [label="Percent $50,000 to $74,999 <= 16.45\nmse = 0.009\nsamples = 2\nvalue = 1.826"] ;
28 -> 38 ;
39 [label="mse = 0.0\nsamples = 1\nvalue = 1.921"] ;
38 -> 39 ;
40 [label="mse = 0.0\nsamples = 1\nvalue = 1.732"] ;
38 -> 40 ;
}